digraph Tree {
node [shape=box, fontname="helvetica"] ;
edge [fontname="helvetica"] ;
0 [label="X[1] <= 2.026\nentropy = 2.0\nsamples = 448\nvalue = [112, 112, 112, 112]"] ;
1 [label="X[0] <= 1.968\nentropy = 2.0\nsamples = 444\nvalue = [108, 112, 112, 112]"] ;
0 -> 1 [labeldistance=2.5, labelangle=45, headlabel="True"] ;
2 [label="X[0] <= -1.979\nentropy = 2.0\nsamples = 438\nvalue = [108, 112, 109, 109]"] ;
1 -> 2 ;
3 [label="X[0] <= -2.036\nentropy = 0.971\nsamples = 5\nvalue = [2, 0, 3, 0]"] ;
2 -> 3 ;
4 [label="entropy = 0.0\nsamples = 2\nvalue = [2, 0, 0, 0]"] ;
3 -> 4 ;
5 [label="entropy = 0.0\nsamples = 3\nvalue = [0, 0, 3, 0]"] ;
3 -> 5 ;
6 [label="X[0] <= -1.903\nentropy = 2.0\nsamples = 433\nvalue = [106, 112, 106, 109]"] ;
2 -> 6 ;
7 [label="X[1] <= 0.134\nentropy = 1.299\nsamples = 8\nvalue = [0, 1, 2, 5]"] ;
6 -> 7 ;
8 [label="entropy = 0.0\nsamples = 5\nvalue = [0, 0, 0, 5]"] ;
7 -> 8 ;
9 [label="X[1] <= 1.279\nentropy = 0.918\nsamples = 3\nvalue = [0, 1, 2, 0]"] ;
7 -> 9 ;
10 [label="entropy = 0.0\nsamples = 2\nvalue = [0, 0, 2, 0]"] ;
9 -> 10 ;
11 [label="entropy = 0.0\nsamples = 1\nvalue = [0, 1, 0, 0]"] ;
9 -> 11 ;
12 [label="X[0] <= -1.891\nentropy = 1.999\nsamples = 425\nvalue = [106, 111, 104, 104]"] ;
6 -> 12 ;
13 [label="entropy = 0.0\nsamples = 3\nvalue = [0, 3, 0, 0]"] ;
12 -> 13 ;
14 [label="X[1] <= 1.929\nentropy = 2.0\nsamples = 422\nvalue = [106, 108, 104, 104]"] ;
12 -> 14 ;
15 [label="X[1] <= 1.55\nentropy = 2.0\nsamples = 418\nvalue = [105, 108, 101, 104]"] ;
14 -> 15 ;
16 [label="X[0] <= 0.236\nentropy = 1.998\nsamples = 378\nvalue = [99, 100, 92, 87]"] ;
15 -> 16 ;
17 [label="X[1] <= 0.073\nentropy = 1.987\nsamples = 203\nvalue = [61, 48, 42, 52]"] ;
16 -> 17 ;
18 [label="X[0] <= -0.929\nentropy = 1.663\nsamples = 115\nvalue = [55, 32, 4, 24]"] ;
17 -> 18 ;
19 [label="X[1] <= -1.096\nentropy = 1.305\nsamples = 53\nvalue = [27, 2, 1, 23]"] ;
18 -> 19 ;
20 [label="X[0] <= -1.159\nentropy = 0.235\nsamples = 26\nvalue = [25, 1, 0, 0]"] ;
19 -> 20 ;
21 [label="entropy = 0.0\nsamples = 23\nvalue = [23, 0, 0, 0]"] ;
20 -> 21 ;
22 [label="entropy = 0.918\nsamples = 3\nvalue = [2, 1, 0, 0]"] ;
20 -> 22 ;
23 [label="X[1] <= -0.01\nentropy = 0.827\nsamples = 27\nvalue = [2, 1, 1, 23]"] ;
19 -> 23 ;
24 [label="entropy = 0.622\nsamples = 26\nvalue = [2, 1, 0, 23]"] ;
23 -> 24 ;
25 [label="entropy = 0.0\nsamples = 1\nvalue = [0, 0, 1, 0]"] ;
23 -> 25 ;
26 [label="X[1] <= -1.088\nentropy = 1.332\nsamples = 62\nvalue = [28, 30, 3, 1]"] ;
18 -> 26 ;
27 [label="X[0] <= 0.051\nentropy = 0.402\nsamples = 25\nvalue = [0, 23, 2, 0]"] ;
26 -> 27 ;
28 [label="entropy = 0.0\nsamples = 22\nvalue = [0, 22, 0, 0]"] ;
27 -> 28 ;
29 [label="entropy = 0.918\nsamples = 3\nvalue = [0, 1, 2, 0]"] ;
27 -> 29 ;
30 [label="X[1] <= -0.666\nentropy = 1.04\nsamples = 37\nvalue = [28, 7, 1, 1]"] ;
26 -> 30 ;
31 [label="entropy = 1.188\nsamples = 20\nvalue = [12, 7, 1, 0]"] ;
30 -> 31 ;
32 [label="entropy = 0.323\nsamples = 17\nvalue = [16, 0, 0, 1]"] ;
30 -> 32 ;
33 [label="X[0] <= -0.838\nentropy = 1.76\nsamples = 88\nvalue = [6, 16, 38, 28]"] ;
17 -> 33 ;
34 [label="X[1] <= 0.877\nentropy = 1.238\nsamples = 46\nvalue = [0, 16, 27, 3]"] ;
33 -> 34 ;
35 [label="X[0] <= -1.176\nentropy = 0.529\nsamples = 25\nvalue = [0, 0, 22, 3]"] ;
34 -> 35 ;
36 [label="entropy = 0.0\nsamples = 16\nvalue = [0, 0, 16, 0]"] ;
35 -> 36 ;
37 [label="entropy = 0.918\nsamples = 9\nvalue = [0, 0, 6, 3]"] ;
35 -> 37 ;
38 [label="X[0] <= -0.977\nentropy = 0.792\nsamples = 21\nvalue = [0, 16, 5, 0]"] ;
34 -> 38 ;
39 [label="entropy = 0.0\nsamples = 16\nvalue = [0, 16, 0, 0]"] ;
38 -> 39 ;
40 [label="entropy = 0.0\nsamples = 5\nvalue = [0, 0, 5, 0]"] ;
38 -> 40 ;
41 [label="X[1] <= 0.933\nentropy = 1.353\nsamples = 42\nvalue = [6, 0, 11, 25]"] ;
33 -> 41 ;
42 [label="X[0] <= 0.028\nentropy = 0.691\nsamples = 27\nvalue = [5, 0, 0, 22]"] ;
41 -> 42 ;
43 [label="entropy = 0.0\nsamples = 22\nvalue = [0, 0, 0, 22]"] ;
42 -> 43 ;
44 [label="entropy = 0.0\nsamples = 5\nvalue = [5, 0, 0, 0]"] ;
42 -> 44 ;
45 [label="X[0] <= 0.057\nentropy = 1.053\nsamples = 15\nvalue = [1, 0, 11, 3]"] ;
41 -> 45 ;
46 [label="entropy = 0.619\nsamples = 13\nvalue = [0, 0, 11, 2]"] ;
45 -> 46 ;
47 [label="entropy = 1.0\nsamples = 2\nvalue = [1, 0, 0, 1]"] ;
45 -> 47 ;
48 [label="X[1] <= -0.055\nentropy = 1.979\nsamples = 175\nvalue = [38, 52, 50, 35]"] ;
16 -> 48 ;
49 [label="X[0] <= 1.126\nentropy = 1.5\nsamples = 98\nvalue = [0, 24, 49, 25]"] ;
48 -> 49 ;
50 [label="X[1] <= -0.931\nentropy = 0.995\nsamples = 50\nvalue = [0, 23, 27, 0]"] ;
49 -> 50 ;
51 [label="X[1] <= -1.102\nentropy = 0.229\nsamples = 27\nvalue = [0, 1, 26, 0]"] ;
50 -> 51 ;
52 [label="entropy = 0.0\nsamples = 22\nvalue = [0, 0, 22, 0]"] ;
51 -> 52 ;
53 [label="entropy = 0.722\nsamples = 5\nvalue = [0, 1, 4, 0]"] ;
51 -> 53 ;
54 [label="X[0] <= 1.008\nentropy = 0.258\nsamples = 23\nvalue = [0, 22, 1, 0]"] ;
50 -> 54 ;
55 [label="entropy = 0.0\nsamples = 19\nvalue = [0, 19, 0, 0]"] ;
54 -> 55 ;
56 [label="entropy = 0.811\nsamples = 4\nvalue = [0, 3, 1, 0]"] ;
54 -> 56 ;
57 [label="X[1] <= -0.919\nentropy = 1.122\nsamples = 48\nvalue = [0, 1, 22, 25]"] ;
49 -> 57 ;
58 [label="X[1] <= -1.063\nentropy = 0.381\nsamples = 27\nvalue = [0, 0, 2, 25]"] ;
57 -> 58 ;
59 [label="entropy = 0.0\nsamples = 22\nvalue = [0, 0, 0, 22]"] ;
58 -> 59 ;
60 [label="entropy = 0.971\nsamples = 5\nvalue = [0, 0, 2, 3]"] ;
58 -> 60 ;
61 [label="X[1] <= -0.071\nentropy = 0.276\nsamples = 21\nvalue = [0, 1, 20, 0]"] ;
57 -> 61 ;
62 [label="entropy = 0.0\nsamples = 19\nvalue = [0, 0, 19, 0]"] ;
61 -> 62 ;
63 [label="entropy = 1.0\nsamples = 2\nvalue = [0, 1, 1, 0]"] ;
61 -> 63 ;
64 [label="X[1] <= 0.903\nentropy = 1.497\nsamples = 77\nvalue = [38, 28, 1, 10]"] ;
48 -> 64 ;
65 [label="X[0] <= 1.062\nentropy = 1.112\nsamples = 49\nvalue = [21, 27, 1, 0]"] ;
64 -> 65 ;
66 [label="X[0] <= 0.637\nentropy = 0.439\nsamples = 22\nvalue = [20, 2, 0, 0]"] ;
65 -> 66 ;
67 [label="entropy = 0.0\nsamples = 11\nvalue = [11, 0, 0, 0]"] ;
66 -> 67 ;
68 [label="entropy = 0.684\nsamples = 11\nvalue = [9, 2, 0, 0]"] ;
66 -> 68 ;
69 [label="X[1] <= 0.013\nentropy = 0.455\nsamples = 27\nvalue = [1, 25, 1, 0]"] ;
65 -> 69 ;
70 [label="entropy = 0.0\nsamples = 1\nvalue = [0, 0, 1, 0]"] ;
69 -> 70 ;
71 [label="entropy = 0.235\nsamples = 26\nvalue = [1, 25, 0, 0]"] ;
69 -> 71 ;
72 [label="X[0] <= 0.956\nentropy = 1.139\nsamples = 28\nvalue = [17, 1, 0, 10]"] ;
64 -> 72 ;
73 [label="entropy = 0.0\nsamples = 10\nvalue = [0, 0, 0, 10]"] ;
72 -> 73 ;
74 [label="X[1] <= 1.101\nentropy = 0.31\nsamples = 18\nvalue = [17, 1, 0, 0]"] ;
72 -> 74 ;
75 [label="entropy = 0.918\nsamples = 3\nvalue = [2, 1, 0, 0]"] ;
74 -> 75 ;
76 [label="entropy = 0.0\nsamples = 15\nvalue = [15, 0, 0, 0]"] ;
74 -> 76 ;
77 [label="X[0] <= -0.023\nentropy = 1.884\nsamples = 40\nvalue = [6, 8, 9, 17]"] ;
15 -> 77 ;
78 [label="X[0] <= -1.017\nentropy = 0.998\nsamples = 17\nvalue = [0, 8, 9, 0]"] ;
77 -> 78 ;
79 [label="entropy = 0.0\nsamples = 8\nvalue = [0, 8, 0, 0]"] ;
78 -> 79 ;
80 [label="entropy = 0.0\nsamples = 9\nvalue = [0, 0, 9, 0]"] ;
78 -> 80 ;
81 [label="X[0] <= 0.78\nentropy = 0.828\nsamples = 23\nvalue = [6, 0, 0, 17]"] ;
77 -> 81 ;
82 [label="entropy = 0.0\nsamples = 17\nvalue = [0, 0, 0, 17]"] ;
81 -> 82 ;
83 [label="entropy = 0.0\nsamples = 6\nvalue = [6, 0, 0, 0]"] ;
81 -> 83 ;
84 [label="X[0] <= 0.498\nentropy = 0.811\nsamples = 4\nvalue = [1, 0, 3, 0]"] ;
14 -> 84 ;
85 [label="entropy = 0.0\nsamples = 3\nvalue = [0, 0, 3, 0]"] ;
84 -> 85 ;
86 [label="entropy = 0.0\nsamples = 1\nvalue = [1, 0, 0, 0]"] ;
84 -> 86 ;
87 [label="X[1] <= -0.941\nentropy = 1.0\nsamples = 6\nvalue = [0, 0, 3, 3]"] ;
1 -> 87 ;
88 [label="entropy = 0.0\nsamples = 3\nvalue = [0, 0, 0, 3]"] ;
87 -> 88 ;
89 [label="entropy = 0.0\nsamples = 3\nvalue = [0, 0, 3, 0]"] ;
87 -> 89 ;
90 [label="entropy = 0.0\nsamples = 4\nvalue = [4, 0, 0, 0]"] ;
0 -> 90 [labeldistance=2.5, labelangle=-45, headlabel="False"] ;
}
