digraph Tree {
node [shape=box, fontname="helvetica"] ;
edge [fontname="helvetica"] ;
0 [label="X[1] <= 1.852\nentropy = 2.0\nsamples = 448\nvalue = [112, 112, 112, 112]"] ;
1 [label="X[0] <= 1.957\nentropy = 1.999\nsamples = 427\nvalue = [109, 111, 103, 104]"] ;
0 -> 1 [labeldistance=2.5, labelangle=45, headlabel="True"] ;
2 [label="X[1] <= 1.776\nentropy = 1.999\nsamples = 418\nvalue = [106, 111, 98, 103]"] ;
1 -> 2 ;
3 [label="X[0] <= 1.884\nentropy = 1.999\nsamples = 410\nvalue = [101, 109, 98, 102]"] ;
2 -> 3 ;
4 [label="X[1] <= 1.568\nentropy = 2.0\nsamples = 405\nvalue = [101, 105, 98, 101]"] ;
3 -> 4 ;
5 [label="X[0] <= -0.119\nentropy = 1.999\nsamples = 378\nvalue = [98, 93, 90, 97]"] ;
4 -> 5 ;
6 [label="X[1] <= -0.97\nentropy = 1.963\nsamples = 182\nvalue = [54, 38, 33, 57]"] ;
5 -> 6 ;
7 [label="X[0] <= -0.998\nentropy = 0.994\nsamples = 55\nvalue = [30, 25, 0, 0]"] ;
6 -> 7 ;
8 [label="entropy = 0.0\nsamples = 28\nvalue = [28, 0, 0, 0]"] ;
7 -> 8 ;
9 [label="X[1] <= -1.086\nentropy = 0.381\nsamples = 27\nvalue = [2, 25, 0, 0]"] ;
7 -> 9 ;
10 [label="entropy = 0.0\nsamples = 25\nvalue = [0, 25, 0, 0]"] ;
9 -> 10 ;
11 [label="entropy = 0.0\nsamples = 2\nvalue = [2, 0, 0, 0]"] ;
9 -> 11 ;
12 [label="X[1] <= -0.137\nentropy = 1.815\nsamples = 127\nvalue = [24, 13, 33, 57]"] ;
6 -> 12 ;
13 [label="X[0] <= -1.071\nentropy = 0.988\nsamples = 46\nvalue = [20, 0, 0, 26]"] ;
12 -> 13 ;
14 [label="entropy = 0.0\nsamples = 24\nvalue = [0, 0, 0, 24]"] ;
13 -> 14 ;
15 [label="X[0] <= -0.945\nentropy = 0.439\nsamples = 22\nvalue = [20, 0, 0, 2]"] ;
13 -> 15 ;
16 [label="X[0] <= -1.037\nentropy = 1.0\nsamples = 4\nvalue = [2, 0, 0, 2]"] ;
15 -> 16 ;
17 [label="entropy = 0.0\nsamples = 2\nvalue = [2, 0, 0, 0]"] ;
16 -> 17 ;
18 [label="entropy = 0.0\nsamples = 2\nvalue = [0, 0, 0, 2]"] ;
16 -> 18 ;
19 [label="entropy = 0.0\nsamples = 18\nvalue = [18, 0, 0, 0]"] ;
15 -> 19 ;
20 [label="X[0] <= -1.009\nentropy = 1.696\nsamples = 81\nvalue = [4, 13, 33, 31]"] ;
12 -> 20 ;
21 [label="X[1] <= 0.981\nentropy = 1.254\nsamples = 45\nvalue = [0, 13, 28, 4]"] ;
20 -> 21 ;
22 [label="X[0] <= -1.175\nentropy = 0.723\nsamples = 33\nvalue = [0, 1, 28, 4]"] ;
21 -> 22 ;
23 [label="X[1] <= 0.079\nentropy = 0.362\nsamples = 29\nvalue = [0, 0, 27, 2]"] ;
22 -> 23 ;
24 [label="entropy = 0.863\nsamples = 7\nvalue = [0, 0, 5, 2]"] ;
23 -> 24 ;
25 [label="entropy = 0.0\nsamples = 22\nvalue = [0, 0, 22, 0]"] ;
23 -> 25 ;
26 [label="X[1] <= 0.858\nentropy = 1.5\nsamples = 4\nvalue = [0, 1, 1, 2]"] ;
22 -> 26 ;
27 [label="entropy = 0.0\nsamples = 2\nvalue = [0, 0, 0, 2]"] ;
26 -> 27 ;
28 [label="entropy = 1.0\nsamples = 2\nvalue = [0, 1, 1, 0]"] ;
26 -> 28 ;
29 [label="entropy = 0.0\nsamples = 12\nvalue = [0, 12, 0, 0]"] ;
21 -> 29 ;
30 [label="X[1] <= 1.14\nentropy = 1.059\nsamples = 36\nvalue = [4, 0, 5, 27]"] ;
20 -> 30 ;
31 [label="X[1] <= 0.216\nentropy = 0.567\nsamples = 30\nvalue = [4, 0, 0, 26]"] ;
30 -> 31 ;
32 [label="X[0] <= -0.57\nentropy = 0.918\nsamples = 6\nvalue = [4, 0, 0, 2]"] ;
31 -> 32 ;
33 [label="entropy = 0.0\nsamples = 2\nvalue = [0, 0, 0, 2]"] ;
32 -> 33 ;
34 [label="entropy = 0.0\nsamples = 4\nvalue = [4, 0, 0, 0]"] ;
32 -> 34 ;
35 [label="entropy = 0.0\nsamples = 24\nvalue = [0, 0, 0, 24]"] ;
31 -> 35 ;
36 [label="X[0] <= -0.21\nentropy = 0.65\nsamples = 6\nvalue = [0, 0, 5, 1]"] ;
30 -> 36 ;
37 [label="entropy = 0.0\nsamples = 5\nvalue = [0, 0, 5, 0]"] ;
36 -> 37 ;
38 [label="entropy = 0.0\nsamples = 1\nvalue = [0, 0, 0, 1]"] ;
36 -> 38 ;
39 [label="X[1] <= -0.836\nentropy = 1.984\nsamples = 196\nvalue = [44, 55, 57, 40]"] ;
5 -> 39 ;
40 [label="X[0] <= 0.927\nentropy = 1.353\nsamples = 63\nvalue = [0, 6, 31, 26]"] ;
39 -> 40 ;
41 [label="X[0] <= -0.025\nentropy = 0.684\nsamples = 33\nvalue = [0, 6, 27, 0]"] ;
40 -> 41 ;
42 [label="entropy = 0.0\nsamples = 2\nvalue = [0, 2, 0, 0]"] ;
41 -> 42 ;
43 [label="X[1] <= -1.053\nentropy = 0.555\nsamples = 31\nvalue = [0, 4, 27, 0]"] ;
41 -> 43 ;
44 [label="X[0] <= 0.075\nentropy = 0.242\nsamples = 25\nvalue = [0, 1, 24, 0]"] ;
43 -> 44 ;
45 [label="entropy = 0.0\nsamples = 1\nvalue = [0, 1, 0, 0]"] ;
44 -> 45 ;
46 [label="entropy = 0.0\nsamples = 24\nvalue = [0, 0, 24, 0]"] ;
44 -> 46 ;
47 [label="X[0] <= 0.316\nentropy = 1.0\nsamples = 6\nvalue = [0, 3, 3, 0]"] ;
43 -> 47 ;
48 [label="entropy = 0.0\nsamples = 3\nvalue = [0, 0, 3, 0]"] ;
47 -> 48 ;
49 [label="entropy = 0.0\nsamples = 3\nvalue = [0, 3, 0, 0]"] ;
47 -> 49 ;
50 [label="X[1] <= -1.087\nentropy = 0.567\nsamples = 30\nvalue = [0, 0, 4, 26]"] ;
40 -> 50 ;
51 [label="entropy = 0.0\nsamples = 25\nvalue = [0, 0, 0, 25]"] ;
50 -> 51 ;
52 [label="X[0] <= 1.287\nentropy = 0.722\nsamples = 5\nvalue = [0, 0, 4, 1]"] ;
50 -> 52 ;
53 [label="entropy = 0.0\nsamples = 3\nvalue = [0, 0, 3, 0]"] ;
52 -> 53 ;
54 [label="X[0] <= 1.468\nentropy = 1.0\nsamples = 2\nvalue = [0, 0, 1, 1]"] ;
52 -> 54 ;
55 [label="entropy = 0.0\nsamples = 1\nvalue = [0, 0, 0, 1]"] ;
54 -> 55 ;
56 [label="entropy = 0.0\nsamples = 1\nvalue = [0, 0, 1, 0]"] ;
54 -> 56 ;
57 [label="X[1] <= 0.866\nentropy = 1.861\nsamples = 133\nvalue = [44, 49, 26, 14]"] ;
39 -> 57 ;
58 [label="X[0] <= 0.942\nentropy = 1.552\nsamples = 95\nvalue = [26, 48, 20, 1]"] ;
57 -> 58 ;
59 [label="X[1] <= 0.083\nentropy = 1.119\nsamples = 50\nvalue = [26, 23, 0, 1]"] ;
58 -> 59 ;
60 [label="X[0] <= 0.608\nentropy = 0.677\nsamples = 28\nvalue = [5, 23, 0, 0]"] ;
59 -> 60 ;
61 [label="X[0] <= 0.598\nentropy = 0.852\nsamples = 18\nvalue = [5, 13, 0, 0]"] ;
60 -> 61 ;
62 [label="entropy = 0.787\nsamples = 17\nvalue = [4, 13, 0, 0]"] ;
61 -> 62 ;
63 [label="entropy = 0.0\nsamples = 1\nvalue = [1, 0, 0, 0]"] ;
61 -> 63 ;
64 [label="entropy = 0.0\nsamples = 10\nvalue = [0, 10, 0, 0]"] ;
60 -> 64 ;
65 [label="X[0] <= -0.011\nentropy = 0.267\nsamples = 22\nvalue = [21, 0, 0, 1]"] ;
59 -> 65 ;
66 [label="entropy = 0.0\nsamples = 1\nvalue = [0, 0, 0, 1]"] ;
65 -> 66 ;
67 [label="entropy = 0.0\nsamples = 21\nvalue = [21, 0, 0, 0]"] ;
65 -> 67 ;
68 [label="X[1] <= 0.041\nentropy = 0.991\nsamples = 45\nvalue = [0, 25, 20, 0]"] ;
58 -> 68 ;
69 [label="X[0] <= 1.07\nentropy = 0.439\nsamples = 22\nvalue = [0, 2, 20, 0]"] ;
68 -> 69 ;
70 [label="X[0] <= 0.996\nentropy = 0.918\nsamples = 3\nvalue = [0, 2, 1, 0]"] ;
69 -> 70 ;
71 [label="entropy = 0.0\nsamples = 1\nvalue = [0, 1, 0, 0]"] ;
70 -> 71 ;
72 [label="entropy = 1.0\nsamples = 2\nvalue = [0, 1, 1, 0]"] ;
70 -> 72 ;
73 [label="entropy = 0.0\nsamples = 19\nvalue = [0, 0, 19, 0]"] ;
69 -> 73 ;
74 [label="entropy = 0.0\nsamples = 23\nvalue = [0, 23, 0, 0]"] ;
68 -> 74 ;
75 [label="X[0] <= 0.067\nentropy = 1.599\nsamples = 38\nvalue = [18, 1, 6, 13]"] ;
57 -> 75 ;
76 [label="entropy = 0.0\nsamples = 6\nvalue = [0, 0, 6, 0]"] ;
75 -> 76 ;
77 [label="X[0] <= 0.638\nentropy = 1.151\nsamples = 32\nvalue = [18, 1, 0, 13]"] ;
75 -> 77 ;
78 [label="X[1] <= 1.086\nentropy = 0.592\nsamples = 14\nvalue = [2, 0, 0, 12]"] ;
77 -> 78 ;
79 [label="X[1] <= 0.983\nentropy = 0.918\nsamples = 3\nvalue = [2, 0, 0, 1]"] ;
78 -> 79 ;
80 [label="entropy = 0.0\nsamples = 1\nvalue = [0, 0, 0, 1]"] ;
79 -> 80 ;
81 [label="entropy = 0.0\nsamples = 2\nvalue = [2, 0, 0, 0]"] ;
79 -> 81 ;
82 [label="entropy = 0.0\nsamples = 11\nvalue = [0, 0, 0, 11]"] ;
78 -> 82 ;
83 [label="X[0] <= 1.612\nentropy = 0.614\nsamples = 18\nvalue = [16, 1, 0, 1]"] ;
77 -> 83 ;
84 [label="X[0] <= 0.976\nentropy = 0.337\nsamples = 16\nvalue = [15, 0, 0, 1]"] ;
83 -> 84 ;
85 [label="entropy = 0.811\nsamples = 4\nvalue = [3, 0, 0, 1]"] ;
84 -> 85 ;
86 [label="entropy = 0.0\nsamples = 12\nvalue = [12, 0, 0, 0]"] ;
84 -> 86 ;
87 [label="X[1] <= 1.254\nentropy = 1.0\nsamples = 2\nvalue = [1, 1, 0, 0]"] ;
83 -> 87 ;
88 [label="entropy = 0.0\nsamples = 1\nvalue = [0, 1, 0, 0]"] ;
87 -> 88 ;
89 [label="entropy = 0.0\nsamples = 1\nvalue = [1, 0, 0, 0]"] ;
87 -> 89 ;
90 [label="X[0] <= -0.905\nentropy = 1.8\nsamples = 27\nvalue = [3, 12, 8, 4]"] ;
4 -> 90 ;
91 [label="entropy = 0.0\nsamples = 12\nvalue = [0, 12, 0, 0]"] ;
90 -> 91 ;
92 [label="X[0] <= 0.094\nentropy = 1.457\nsamples = 15\nvalue = [3, 0, 8, 4]"] ;
90 -> 92 ;
93 [label="entropy = 0.0\nsamples = 8\nvalue = [0, 0, 8, 0]"] ;
92 -> 93 ;
94 [label="X[0] <= 0.837\nentropy = 0.985\nsamples = 7\nvalue = [3, 0, 0, 4]"] ;
92 -> 94 ;
95 [label="entropy = 0.0\nsamples = 4\nvalue = [0, 0, 0, 4]"] ;
94 -> 95 ;
96 [label="entropy = 0.0\nsamples = 3\nvalue = [3, 0, 0, 0]"] ;
94 -> 96 ;
97 [label="X[1] <= -0.453\nentropy = 0.722\nsamples = 5\nvalue = [0, 4, 0, 1]"] ;
3 -> 97 ;
98 [label="entropy = 0.0\nsamples = 1\nvalue = [0, 0, 0, 1]"] ;
97 -> 98 ;
99 [label="entropy = 0.0\nsamples = 4\nvalue = [0, 4, 0, 0]"] ;
97 -> 99 ;
100 [label="X[0] <= 0.851\nentropy = 1.299\nsamples = 8\nvalue = [5, 2, 0, 1]"] ;
2 -> 100 ;
101 [label="X[0] <= -0.248\nentropy = 0.918\nsamples = 3\nvalue = [0, 2, 0, 1]"] ;
100 -> 101 ;
102 [label="entropy = 0.0\nsamples = 2\nvalue = [0, 2, 0, 0]"] ;
101 -> 102 ;
103 [label="entropy = 0.0\nsamples = 1\nvalue = [0, 0, 0, 1]"] ;
101 -> 103 ;
104 [label="entropy = 0.0\nsamples = 5\nvalue = [5, 0, 0, 0]"] ;
100 -> 104 ;
105 [label="X[1] <= 0.413\nentropy = 1.352\nsamples = 9\nvalue = [3, 0, 5, 1]"] ;
1 -> 105 ;
106 [label="X[0] <= 2.077\nentropy = 0.65\nsamples = 6\nvalue = [0, 0, 5, 1]"] ;
105 -> 106 ;
107 [label="entropy = 0.0\nsamples = 5\nvalue = [0, 0, 5, 0]"] ;
106 -> 107 ;
108 [label="entropy = 0.0\nsamples = 1\nvalue = [0, 0, 0, 1]"] ;
106 -> 108 ;
109 [label="entropy = 0.0\nsamples = 3\nvalue = [3, 0, 0, 0]"] ;
105 -> 109 ;
110 [label="X[0] <= -0.067\nentropy = 1.664\nsamples = 21\nvalue = [3, 1, 9, 8]"] ;
0 -> 110 [labeldistance=2.5, labelangle=-45, headlabel="False"] ;
111 [label="X[0] <= -1.133\nentropy = 0.866\nsamples = 11\nvalue = [0, 1, 9, 1]"] ;
110 -> 111 ;
112 [label="entropy = 0.0\nsamples = 1\nvalue = [0, 1, 0, 0]"] ;
111 -> 112 ;
113 [label="X[1] <= 1.86\nentropy = 0.469\nsamples = 10\nvalue = [0, 0, 9, 1]"] ;
111 -> 113 ;
114 [label="entropy = 0.0\nsamples = 1\nvalue = [0, 0, 0, 1]"] ;
113 -> 114 ;
115 [label="entropy = 0.0\nsamples = 9\nvalue = [0, 0, 9, 0]"] ;
113 -> 115 ;
116 [label="X[0] <= 1.037\nentropy = 0.881\nsamples = 10\nvalue = [3, 0, 0, 7]"] ;
110 -> 116 ;
117 [label="entropy = 0.0\nsamples = 7\nvalue = [0, 0, 0, 7]"] ;
116 -> 117 ;
118 [label="entropy = 0.0\nsamples = 3\nvalue = [3, 0, 0, 0]"] ;
116 -> 118 ;
}
